-0.038219288682784749444643068727600621059536933898926,-0.60062584064120994042923484812490642070770263671875,0.30240725437226301242077397546381689608097076416016,-0.26264925916313808240687421857728622853755950927734,-0.14735807818481530540033475062955403700470924377441,-0.20074944378920034360191948508145287632942199707031,-0.47996057438700034936118754558265209197998046875,-0.44710215636513644943406120546569582074880599975586,0.34405006894258671756858802837086841464042663574219,-0.28379958749615735724702858533419203013181686401367,0.20723467071669279815360198426787974312901496887207,39.91989411477347715617725043557584285736083984375,-7.1770491854602065373569530493114143610000610351562,1.6384722033618426273449131258530542254447937011719,3.9220023063170024180124073609476909041404724121094,1.6547575860763668043063034929218702018260955810547,5.5534825288158051748155230598058551549911499023438,4.37799466741648046763657475821673870086669921875,-6.5234962169020294098231715906877070665359497070312,8.08965974820893762853302177973091602325439453125,-0.048861201830565657855398598030660650692880153656006,4.7088763003634488413240433146711438894271850585938,0.90879178915444658315436754492111504077911376953125,-0.79533098424184889285726285379496403038501739501953,1.1392979885017138208525011577876284718513488769531,-1.3446775174769680649689007623237557709217071533203,1.1009090122093854180462813019403256475925445556641,0.87641461962203315305686146530206315219402313232422,0.53562112901062419734188324582646600902080535888672,-2.0117721954332954403810163057642057538032531738281,0.19370285862476752103411570260504959151148796081543,6.4355096018165340865380130708217620849609375,-2.2077696917541556054231932648690417408943176269531,0.90190285804004455272320228687021881341934204101562,-0.60407297657601488616307960910489782691001892089844,1.6549914079472747285848299725330434739589691162109,-1.3357465519783013885302125345333479344844818115234,-0.58442218046859639724033286256599240005016326904297,-1.7582801634177409599857355715357698500156402587891,2.2414845309579738419358818646287545561790466308594,0.27595121768229030623231778918125201016664505004883,-21.801255856032337732131054508499801158905029296875,3.189614305114634618121272069402039051055908203125,-1.3784191803257828112805327691603451967239379882812,-0.0069603728300301655196324901453408529050648212432861,0.50100615694730821214619709280668757855892181396484,-4.9563791322547485762584074109327048063278198242188,-2.6432093926574049547184586117509752511978149414062,3.7750486346186189479112726985476911067962646484375,-5.9337210665956208188731579866725951433181762695312,0.215774055551410270936685265041887760162353515625,-22.285988809170792279701345250941812992095947265625,5.0514178953583011022487880836706608533859252929688,-0.65416849723321968124167824498726986348628997802734,-4.811531848791364751605215133167803287506103515625,-0.35976788600854664457173726077598985284566879272461,-6.20799417448196066970922402106225490570068359375,-3.9155591070665463071520662197144702076911926269531,4.4135063042306592606678350421134382486343383789062,-5.9188635676068575008912375778891146183013916015625,0.22118076394785807226028850891452748328447341918945,28.058585023980327832759940065443515777587890625,-10.462507356216139697835387778468430042266845703125,4.27250891203976834731292910873889923095703125,-2.851323945577735941014907439239323139190673828125,3.4129802435868423771125890198163688182830810546875,0.67393977657030867955967323723598383367061614990234,0.70772979430566751446463058528024703264236450195312,-9.169157051323434615142105030827224254608154296875,14.248914148327154194362265116069465875625610351562,0.011511736726714197343035550602508010342717170715332,-105.0433692497609854399343021214008331298828125,14.00596921064834532444365322589874267578125,1.0135413992184023612708188011310994625091552734375,-24.94192251145803851386517635546624660491943359375,0.42399034632282933676705738434975501149892807006836,-26.68904074340522214470183826051652431488037109375,-19.47107703461195882255196920596063137054443359375,13.956723426006572452706677722744643688201904296875,-11.469224583455197574721751152537763118743896484375,0.22127374067202787433217281432007439434528350830078,67.364990051290959627294796518981456756591796875,-13.601378391750058582942983775865286588668823242188,1.2130127786885251950366182427387684583663940429688,15.78792957241295624726262758485972881317138671875,4.4676780864758569578043534420430660247802734375,13.241337222991575117703177966177463531494140625,11.221481909424708689471117395441979169845581054688,-12.183391459532940004351075913291424512863159179688,11.441478063212304761009363573975861072540283203125,0.31337408870519334325166482813074253499507904052734,52.19552910525062117130801198072731494903564453125,-14.930734292922608119624783284962177276611328125,4.170556952901474545569726615212857723236083984375,4.5435142385861109204370222869329154491424560546875,5.64862273205326204106313525699079036712646484375,5.8838255904345917457476389245130121707916259765625,5.0663251762554608603750239126384258270263671875,-12.430341486835994047055464761797338724136352539062,17.0079787653568672567416797392070293426513671875,-0.030442365891335317062971199675303068943321704864502,26.065200782412858870884520001709461212158203125,-1.5575347720107033389069783879676833748817443847656,-0.45684055725302935568876705474394839257001876831055,5.4421696368175220825946780678350478410720825195312,-2.8177409357710034853994329751003533601760864257812,8.5789585203856528750065990607254207134246826171875,4.9893753634292483667422857251949608325958251953125,-2.397134765293284175413646153174340724945068359375,2.3721819782776791818434958258876577019691467285156,0.24163938114987829064439495141414226964116096496582,41.3589199937033669129959889687597751617431640625,5.682381424869706876279451535083353519439697265625,-3.239695157217084897638414986431598663330078125,4.8220379759845881650903720583301037549972534179688,-10.300631021251406949090778653044253587722778320312,13.815074027651929711169032088946551084518432617188,6.9306251372936600319007993675768375396728515625,1.6150041448088010564987371253664605319499969482422,-5.72848430705342792634837678633630275726318359375,0.24428141854736071247877760015398962423205375671387,-68.6260243551258781735668890178203582763671875,22.221877003537162664770221454091370105743408203125,-6.1527142393988762947287796123418956995010375976562,-7.97516314782117063941768719814717769622802734375,-9.9199270353618604900702848681248724460601806640625,-8.26578049857062779892657999880611896514892578125,-7.9609614001023825125002986169420182704925537109375,18.673912717100932923131040297448635101318359375,-25.454445822368231944210492656566202640533447265625,0.13019096401869587054100918521726271137595176696777,36.643847251157438904556329362094402313232421875,-11.945140184841664066084376827348023653030395507812,4.730190829610524616555267130024731159210205078125,-1.6854057916983833376178836260805837810039520263672,4.0224028307371364476807684695813804864883422851562,1.8614349093560000891756089913542382419109344482422,1.7715119434592490055280222804867662489414215087891,-10.206237740829125826280687761027365922927856445312,15.65054744131287378650085884146392345428466796875,0.015600420764024859263119360264226997969672083854675,9.14651229178759450633151573128998279571533203125,-10.054553398600324598533006792422384023666381835938,2.3336161410650388958742951217573136091232299804688,5.3666395601711291973856532422360032796859741210938,8.0173387513659921665976071381010115146636962890625,-1.4568948301749409246497179992729797959327697753906,1.0658436211935951032359071177779696881771087646484,-7.093731637073073414967439020983874797821044921875,8.6694265899031961453147232532501220703125,0.26298210293370727352879612226388417184352874755859,7.092169928786031363188158138655126094818115234375,-2.5361233708978785372778474993538111448287963867188,0.76348102532492523319973543038940988481044769287109,-1.39178993886093138598880614154040813446044921875,1.718563352221881501691314042545855045318603515625,-1.6452956799227123063644739886512979865074157714844,-0.66102020568857211557656228251289576292037963867188,-2.1176322573677106575473771954420953989028930664062,2.4002958746353240115922744735144078731536865234375,0.05917560064675713576987092778836085926741361618042,-1.7844255756317175531933116872096434235572814941406,0.10344038269849778477471602400328265503048896789551,-0.13531142035649831867338832580571761354804039001465,0.053815548884724555278591395790499518625438213348389,0.13674009951375701299447484871052438393235206604004,-0.27149760657196481128394793813640717417001724243164,0.031705041813376438897265074956521857529878616333008,0.42329428114117101378255370036640670150518417358398,-0.29287786547331629005697095635696314275264739990234,1.3778013734745238050294346976443193852901458740234,1.3036423980385605236875790069461800158023834228516,-2.0728066083257234986092498729703947901725769042969,1.4411030393143762218244319228688254952430725097656,0.82623518757363767495149886599392630159854888916016,-1.6211635316152936958644659171113744378089904785156,-0.25930676813380709733181106457777786999940872192383,0.12649110640673516536836018531175795942544937133789,0.11384199576606168768933002866106107831001281738281,0.018973665961010299785272081862785853445529937744141,-0.082219219164377854713876558889751322567462921142578,-0.10119288512538812674357302512362366542220115661621,0.2529822128134703862478716018813429400324821472168,0.15811388300841894283266242382524069398641586303711,0.27828043409481734160593191518273670226335525512695,0.14546477236774546515363226717454381287097930908203,-0.13281566172707195971902649489493342116475105285645,0.063245553203367554928604477026965469121932983398438,0.12649110640673516536836018531175795942544937133789,0.24665765749313356414162967666925396770238876342773,0,0.15811388300841894283266242382524069398641586303711,0.15811388300841894283266242382524069398641586303711,0.063245553203367554928604477026965469121932983398438,-0.20238577025077628124272166587616084143519401550293,0.069570108523704321523695170981227420270442962646484,0.13914021704740869855854157322028186172246932983398,0.15178932768808223174872296112880576401948928833008,-0.15178932768808220399314734549989225342869758605957,-0.27828043409481739711708314644056372344493865966797,-0.30357865537616440798629469099978450685739517211914,-0.10119288512538812674357302512362366542220115661621,-0.031622776601683777464302238513482734560966491699219